digraph Tree {
node [shape=box, style="filled, rounded", color="black", fontname=helvetica] ;
edge [fontname=helvetica] ;
0 [label="total_votes <= 975.5\nmse = 0.484\nsamples = 727\nvalue = 6.426", fillcolor="#f3c4a3"] ;
1 [label="duration <= 79.5\nmse = 0.351\nsamples = 561\nvalue = 6.223", fillcolor="#f4ccae"] ;
0 -> 1 [labeldistance=2.5, labelangle=45, headlabel="True"] ;
2 [label="total_votes <= 150.5\nmse = 0.329\nsamples = 330\nvalue = 6.07", fillcolor="#f6d1b7"] ;
1 -> 2 ;
3 [label="duration <= 78.5\nmse = 0.402\nsamples = 73\nvalue = 5.811", fillcolor="#f7dbc6"] ;
2 -> 3 ;
4 [label="duration <= 59.5\nmse = 0.373\nsamples = 72\nvalue = 5.855", fillcolor="#f7d9c3"] ;
3 -> 4 ;
5 [label="mse = 0.449\nsamples = 8\nvalue = 5.367", fillcolor="#fbebdf"] ;
4 -> 5 ;
6 [label="mse = 0.321\nsamples = 64\nvalue = 5.927", fillcolor="#f7d6bf"] ;
4 -> 6 ;
7 [label="mse = -0.0\nsamples = 1\nvalue = 4.8", fillcolor="#ffffff"] ;
3 -> 7 ;
8 [label="duration <= 69.5\nmse = 0.286\nsamples = 257\nvalue = 6.141", fillcolor="#f5cfb3"] ;
2 -> 8 ;
9 [label="Adventure <= 0.5\nmse = 0.407\nsamples = 128\nvalue = 6.019", fillcolor="#f6d3ba"] ;
8 -> 9 ;
10 [label="mse = 0.366\nsamples = 119\nvalue = 6.066", fillcolor="#f6d1b7"] ;
9 -> 10 ;
11 [label="mse = 0.571\nsamples = 9\nvalue = 5.477", fillcolor="#fae7d9"] ;
9 -> 11 ;
12 [label="total_votes <= 260.0\nmse = 0.161\nsamples = 129\nvalue = 6.243", fillcolor="#f4cbad"] ;
8 -> 12 ;
13 [label="mse = 0.112\nsamples = 46\nvalue = 6.103", fillcolor="#f5d0b5"] ;
12 -> 13 ;
14 [label="mse = 0.172\nsamples = 83\nvalue = 6.324", fillcolor="#f4c8a9"] ;
12 -> 14 ;
15 [label="year <= 1932.5\nmse = 0.301\nsamples = 231\nvalue = 6.443", fillcolor="#f3c4a2"] ;
1 -> 15 ;
16 [label="year <= 1928.5\nmse = 0.321\nsamples = 181\nvalue = 6.366", fillcolor="#f3c7a6"] ;
15 -> 16 ;
17 [label="total_votes <= 127.5\nmse = 0.238\nsamples = 90\nvalue = 6.517", fillcolor="#f2c19e"] ;
16 -> 17 ;
18 [label="mse = 0.393\nsamples = 11\nvalue = 6.117", fillcolor="#f5d0b5"] ;
17 -> 18 ;
19 [label="mse = 0.2\nsamples = 79\nvalue = 6.564", fillcolor="#f2bf9b"] ;
17 -> 19 ;
20 [label="country <= 1.5\nmse = 0.356\nsamples = 91\nvalue = 6.219", fillcolor="#f4ccaf"] ;
16 -> 20 ;
21 [label="mse = 0.358\nsamples = 87\nvalue = 6.185", fillcolor="#f5cdb1"] ;
20 -> 21 ;
22 [label="mse = 0.008\nsamples = 4\nvalue = 6.771", fillcolor="#f0b88f"] ;
20 -> 22 ;
23 [label="total_votes <= 147.5\nmse = 0.184\nsamples = 50\nvalue = 6.659", fillcolor="#f1bc96"] ;
15 -> 23 ;
24 [label="duration <= 83.5\nmse = 0.219\nsamples = 7\nvalue = 6.255", fillcolor="#f4cbad"] ;
23 -> 24 ;
25 [label="mse = 0.04\nsamples = 3\nvalue = 6.6", fillcolor="#f2be99"] ;
24 -> 25 ;
26 [label="mse = 0.186\nsamples = 4\nvalue = 5.967", fillcolor="#f6d5bd"] ;
24 -> 26 ;
27 [label="duration <= 80.5\nmse = 0.15\nsamples = 43\nvalue = 6.721", fillcolor="#f1ba92"] ;
23 -> 27 ;
28 [label="mse = 0.126\nsamples = 3\nvalue = 6.06", fillcolor="#f6d2b8"] ;
27 -> 28 ;
29 [label="mse = 0.117\nsamples = 40\nvalue = 6.77", fillcolor="#f0b890"] ;
27 -> 29 ;
30 [label="total_votes <= 8910.0\nmse = 0.326\nsamples = 166\nvalue = 7.112", fillcolor="#eeac7c"] ;
0 -> 30 [labeldistance=2.5, labelangle=-45, headlabel="False"] ;
31 [label="duration <= 85.5\nmse = 0.253\nsamples = 143\nvalue = 6.984", fillcolor="#efb083"] ;
30 -> 31 ;
32 [label="total_votes <= 2725.0\nmse = 0.249\nsamples = 78\nvalue = 6.814", fillcolor="#f0b78d"] ;
31 -> 32 ;
33 [label="year <= 1934.5\nmse = 0.227\nsamples = 59\nvalue = 6.668", fillcolor="#f1bc95"] ;
32 -> 33 ;
34 [label="mse = 0.21\nsamples = 57\nvalue = 6.639", fillcolor="#f1bd97"] ;
33 -> 34 ;
35 [label="mse = 0.08\nsamples = 2\nvalue = 7.4", fillcolor="#eca16c"] ;
33 -> 35 ;
36 [label="Horror <= 0.5\nmse = 0.116\nsamples = 19\nvalue = 7.181", fillcolor="#eda978"] ;
32 -> 36 ;
37 [label="mse = 0.07\nsamples = 14\nvalue = 7.275", fillcolor="#eda673"] ;
36 -> 37 ;
38 [label="mse = 0.14\nsamples = 5\nvalue = 6.857", fillcolor="#f0b58b"] ;
36 -> 38 ;
39 [label="duration <= 105.0\nmse = 0.176\nsamples = 65\nvalue = 7.199", fillcolor="#eda977"] ;
31 -> 39 ;
40 [label="Mystery <= 0.5\nmse = 0.152\nsamples = 46\nvalue = 7.08", fillcolor="#eead7e"] ;
39 -> 40 ;
41 [label="mse = 0.139\nsamples = 45\nvalue = 7.106", fillcolor="#eeac7d"] ;
40 -> 41 ;
42 [label="mse = -0.0\nsamples = 1\nvalue = 6.4", fillcolor="#f3c5a4"] ;
40 -> 42 ;
43 [label="total_votes <= 4915.0\nmse = 0.149\nsamples = 19\nvalue = 7.41", fillcolor="#eca16b"] ;
39 -> 43 ;
44 [label="mse = 0.093\nsamples = 17\nvalue = 7.312", fillcolor="#eca571"] ;
43 -> 44 ;
45 [label="mse = 0.13\nsamples = 2\nvalue = 7.92", fillcolor="#e88f4e"] ;
43 -> 45 ;
46 [label="year <= 1928.5\nmse = 0.083\nsamples = 23\nvalue = 7.87", fillcolor="#e89051"] ;
30 -> 46 ;
47 [label="total_votes <= 97829.0\nmse = 0.019\nsamples = 12\nvalue = 8.039", fillcolor="#e78a48"] ;
46 -> 47 ;
48 [label="year <= 1922.5\nmse = 0.012\nsamples = 11\nvalue = 8.006", fillcolor="#e78c4a"] ;
47 -> 48 ;
49 [label="mse = 0.002\nsamples = 2\nvalue = 7.867", fillcolor="#e89152"] ;
48 -> 49 ;
50 [label="mse = 0.009\nsamples = 9\nvalue = 8.038", fillcolor="#e78a48"] ;
48 -> 50 ;
51 [label="mse = 0.0\nsamples = 1\nvalue = 8.3", fillcolor="#e58139"] ;
47 -> 51 ;
52 [label="year <= 1931.5\nmse = 0.084\nsamples = 11\nvalue = 7.667", fillcolor="#ea985d"] ;
46 -> 52 ;
53 [label="Thriller <= 0.5\nmse = 0.065\nsamples = 7\nvalue = 7.462", fillcolor="#eb9f68"] ;
52 -> 53 ;
54 [label="mse = 0.039\nsamples = 6\nvalue = 7.529", fillcolor="#eb9d65"] ;
53 -> 54 ;
55 [label="mse = 0.0\nsamples = 1\nvalue = 7.0", fillcolor="#efb083"] ;
53 -> 55 ;
56 [label="Horror <= 0.5\nmse = 0.003\nsamples = 4\nvalue = 7.9", fillcolor="#e88f50"] ;
52 -> 56 ;
57 [label="mse = 0.0\nsamples = 1\nvalue = 7.8", fillcolor="#e99355"] ;
56 -> 57 ;
58 [label="mse = 0.001\nsamples = 3\nvalue = 7.917", fillcolor="#e88f4f"] ;
56 -> 58 ;
}