digraph {
	0 [label="total_votes <= 975.5\nmse = 0.484\nsamples = 727\nvalue = 6.426" fillcolor=green style=filled]
	1 [label="duration <= 79.5\nmse = 0.351\nsamples = 561\nvalue = 6.223" fillcolor=green style=filled]
	2 [label="total_votes <= 150.5\nmse = 0.329\nsamples = 330\nvalue = 6.07" fillcolor="#f6d1b7" style=filled]
	3 [label="duration <= 78.5\nmse = 0.402\nsamples = 73\nvalue = 5.811" fillcolor="#f7dbc6" style=filled]
	4 [label="duration <= 59.5\nmse = 0.373\nsamples = 72\nvalue = 5.855" fillcolor="#f7d9c3" style=filled]
	5 [label="mse = 0.449\nsamples = 8\nvalue = 5.367" fillcolor="#fbebdf" style=filled]
	6 [label="mse = 0.321\nsamples = 64\nvalue = 5.927" fillcolor="#f7d6bf" style=filled]
	7 [label="mse = -0.0\nsamples = 1\nvalue = 4.8" fillcolor="#ffffff" style=filled]
	8 [label="duration <= 69.5\nmse = 0.286\nsamples = 257\nvalue = 6.141" fillcolor="#f5cfb3" style=filled]
	9 [label="Adventure <= 0.5\nmse = 0.407\nsamples = 128\nvalue = 6.019" fillcolor="#f6d3ba" style=filled]
	10 [label="mse = 0.366\nsamples = 119\nvalue = 6.066" fillcolor="#f6d1b7" style=filled]
	11 [label="mse = 0.571\nsamples = 9\nvalue = 5.477" fillcolor="#fae7d9" style=filled]
	12 [label="total_votes <= 260.0\nmse = 0.161\nsamples = 129\nvalue = 6.243" fillcolor="#f4cbad" style=filled]
	13 [label="mse = 0.112\nsamples = 46\nvalue = 6.103" fillcolor="#f5d0b5" style=filled]
	14 [label="mse = 0.172\nsamples = 83\nvalue = 6.324" fillcolor="#f4c8a9" style=filled]
	15 [label="year <= 1932.5\nmse = 0.301\nsamples = 231\nvalue = 6.443" fillcolor=green style=filled]
	16 [label="year <= 1928.5\nmse = 0.321\nsamples = 181\nvalue = 6.366" fillcolor="#f3c7a6" style=filled]
	17 [label="total_votes <= 127.5\nmse = 0.238\nsamples = 90\nvalue = 6.517" fillcolor="#f2c19e" style=filled]
	18 [label="mse = 0.393\nsamples = 11\nvalue = 6.117" fillcolor="#f5d0b5" style=filled]
	19 [label="mse = 0.2\nsamples = 79\nvalue = 6.564" fillcolor="#f2bf9b" style=filled]
	20 [label="country <= 1.5\nmse = 0.356\nsamples = 91\nvalue = 6.219" fillcolor="#f4ccaf" style=filled]
	21 [label="mse = 0.358\nsamples = 87\nvalue = 6.185" fillcolor="#f5cdb1" style=filled]
	22 [label="mse = 0.008\nsamples = 4\nvalue = 6.771" fillcolor="#f0b88f" style=filled]
	23 [label="total_votes <= 147.5\nmse = 0.184\nsamples = 50\nvalue = 6.659" fillcolor=green style=filled]
	24 [label="duration <= 83.5\nmse = 0.219\nsamples = 7\nvalue = 6.255" fillcolor="#f4cbad" style=filled]
	25 [label="mse = 0.04\nsamples = 3\nvalue = 6.6" fillcolor="#f2be99" style=filled]
	26 [label="mse = 0.186\nsamples = 4\nvalue = 5.967" fillcolor="#f6d5bd" style=filled]
	27 [label="duration <= 80.5\nmse = 0.15\nsamples = 43\nvalue = 6.721" fillcolor=green style=filled]
	28 [label="mse = 0.126\nsamples = 3\nvalue = 6.06" fillcolor="#f6d2b8" style=filled]
	29 [label="mse = 0.117\nsamples = 40\nvalue = 6.77" fillcolor=green style=filled]
	30 [label="total_votes <= 8910.0\nmse = 0.326\nsamples = 166\nvalue = 7.112" fillcolor="#eeac7c" style=filled]
	31 [label="duration <= 85.5\nmse = 0.253\nsamples = 143\nvalue = 6.984" fillcolor="#efb083" style=filled]
	32 [label="total_votes <= 2725.0\nmse = 0.249\nsamples = 78\nvalue = 6.814" fillcolor="#f0b78d" style=filled]
	33 [label="year <= 1934.5\nmse = 0.227\nsamples = 59\nvalue = 6.668" fillcolor="#f1bc95" style=filled]
	34 [label="mse = 0.21\nsamples = 57\nvalue = 6.639" fillcolor="#f1bd97" style=filled]
	35 [label="mse = 0.08\nsamples = 2\nvalue = 7.4" fillcolor="#eca16c" style=filled]
	36 [label="Horror <= 0.5\nmse = 0.116\nsamples = 19\nvalue = 7.181" fillcolor="#eda978" style=filled]
	37 [label="mse = 0.07\nsamples = 14\nvalue = 7.275" fillcolor="#eda673" style=filled]
	38 [label="mse = 0.14\nsamples = 5\nvalue = 6.857" fillcolor="#f0b58b" style=filled]
	39 [label="duration <= 105.0\nmse = 0.176\nsamples = 65\nvalue = 7.199" fillcolor="#eda977" style=filled]
	40 [label="Mystery <= 0.5\nmse = 0.152\nsamples = 46\nvalue = 7.08" fillcolor="#eead7e" style=filled]
	41 [label="mse = 0.139\nsamples = 45\nvalue = 7.106" fillcolor="#eeac7d" style=filled]
	42 [label="mse = -0.0\nsamples = 1\nvalue = 6.4" fillcolor="#f3c5a4" style=filled]
	43 [label="total_votes <= 4915.0\nmse = 0.149\nsamples = 19\nvalue = 7.41" fillcolor="#eca16b" style=filled]
	44 [label="mse = 0.093\nsamples = 17\nvalue = 7.312" fillcolor="#eca571" style=filled]
	45 [label="mse = 0.13\nsamples = 2\nvalue = 7.92" fillcolor="#e88f4e" style=filled]
	46 [label="year <= 1928.5\nmse = 0.083\nsamples = 23\nvalue = 7.87" fillcolor="#e89051" style=filled]
	47 [label="total_votes <= 97829.0\nmse = 0.019\nsamples = 12\nvalue = 8.039" fillcolor="#e78a48" style=filled]
	48 [label="year <= 1922.5\nmse = 0.012\nsamples = 11\nvalue = 8.006" fillcolor="#e78c4a" style=filled]
	49 [label="mse = 0.002\nsamples = 2\nvalue = 7.867" fillcolor="#e89152" style=filled]
	50 [label="mse = 0.009\nsamples = 9\nvalue = 8.038" fillcolor="#e78a48" style=filled]
	51 [label="mse = 0.0\nsamples = 1\nvalue = 8.3" fillcolor="#e58139" style=filled]
	52 [label="year <= 1931.5\nmse = 0.084\nsamples = 11\nvalue = 7.667" fillcolor="#ea985d" style=filled]
	53 [label="Thriller <= 0.5\nmse = 0.065\nsamples = 7\nvalue = 7.462" fillcolor="#eb9f68" style=filled]
	54 [label="mse = 0.039\nsamples = 6\nvalue = 7.529" fillcolor="#eb9d65" style=filled]
	55 [label="mse = 0.0\nsamples = 1\nvalue = 7.0" fillcolor="#efb083" style=filled]
	56 [label="Horror <= 0.5\nmse = 0.003\nsamples = 4\nvalue = 7.9" fillcolor="#e88f50" style=filled]
	57 [label="mse = 0.0\nsamples = 1\nvalue = 7.8" fillcolor="#e99355" style=filled]
	58 [label="mse = 0.001\nsamples = 3\nvalue = 7.917" fillcolor="#e88f4f" style=filled]
	0 -> 1
	1 -> 2
	2 -> 3
	3 -> 4
	4 -> 5
	4 -> 6
	3 -> 7
	2 -> 8
	8 -> 9
	9 -> 10
	9 -> 11
	8 -> 12
	12 -> 13
	12 -> 14
	1 -> 15
	15 -> 16
	16 -> 17
	17 -> 18
	17 -> 19
	16 -> 20
	20 -> 21
	20 -> 22
	15 -> 23
	23 -> 24
	24 -> 25
	24 -> 26
	23 -> 27
	27 -> 28
	27 -> 29
	0 -> 30
	30 -> 31
	31 -> 32
	32 -> 33
	33 -> 34
	33 -> 35
	32 -> 36
	36 -> 37
	36 -> 38
	31 -> 39
	39 -> 40
	40 -> 41
	40 -> 42
	39 -> 43
	43 -> 44
	43 -> 45
	30 -> 46
	46 -> 47
	47 -> 48
	48 -> 49
	48 -> 50
	47 -> 51
	46 -> 52
	52 -> 53
	53 -> 54
	53 -> 55
	52 -> 56
	56 -> 57
	56 -> 58
}
